digraph Tree {
node [shape=box, style="rounded", color="black", fontname=helvetica] ;
edge [fontname=helvetica] ;
0 [label="NewND_AllIntentRetLB1 <= 21.7\nmse = 292.3\nsamples = 394\nvalue = 43.1"] ;
1 [label="ND_NumTrans1 <= 9.5\nmse = 227.5\nsamples = 49\nvalue = 8.0"] ;
0 -> 1 [labeldistance=2.5, labelangle=45, headlabel="True"] ;
2 [label="mse = -0.0\nsamples = 30\nvalue = 0.0"] ;
1 -> 2 ;
3 [label="ND_IntentRetPerLB1 <= 3.3\nmse = 315.1\nsamples = 19\nvalue = 22.3"] ;
1 -> 3 ;
4 [label="mse = 353.0\nsamples = 5\nvalue = 46.1"] ;
3 -> 4 ;
5 [label="mse = 65.7\nsamples = 14\nvalue = 14.8"] ;
3 -> 5 ;
6 [label="NewND_2IntentRetLB1 <= 54.1\nmse = 93.7\nsamples = 345\nvalue = 48.3"] ;
0 -> 6 [labeldistance=2.5, labelangle=-45, headlabel="False"] ;
7 [label="ND_RetrieveLB1 <= 42.2\nmse = 56.9\nsamples = 127\nvalue = 40.8"] ;
6 -> 7 ;
8 [label="mse = 49.6\nsamples = 54\nvalue = 35.7"] ;
7 -> 8 ;
9 [label="mse = 33.1\nsamples = 73\nvalue = 44.2"] ;
7 -> 9 ;
10 [label="NewND_1IntentRetLB1 <= 61.6\nmse = 62.4\nsamples = 218\nvalue = 52.7"] ;
6 -> 10 ;
11 [label="mse = 45.8\nsamples = 151\nvalue = 50.0"] ;
10 -> 11 ;
12 [label="mse = 46.7\nsamples = 67\nvalue = 58.6"] ;
10 -> 12 ;
}